digraph Tree {
node [shape=box, style="filled, rounded", color="black", fontname=helvetica] ;
edge [fontname=helvetica] ;
0 [label="DiffLP <= -3.5\ngini = 0.64\nsamples = 1692\nvalue = [707, 708, 1245]\nclass = 2", fillcolor="#dcc9f8"] ;
1 [label="HM2 <= 0.5\ngini = 0.52\nsamples = 613\nvalue = [153, 194, 617]\nclass = 2", fillcolor="#ba92f1"] ;
0 -> 1 [labeldistance=2.5, labelangle=45, headlabel="True"] ;
2 [label="HTGD <= -0.23\ngini = 0.43\nsamples = 135\nvalue = [30, 29, 159]\nclass = 2", fillcolor="#a977ed"] ;
1 -> 2 ;
3 [label="ATP <= 0.05\ngini = 0.63\nsamples = 28\nvalue = [11, 9, 19]\nclass = 2", fillcolor="#dbc6f8"] ;
2 -> 3 ;
4 [label="gini = 0.0\nsamples = 3\nvalue = [0, 5, 0]\nclass = 1", fillcolor="#39e581"] ;
3 -> 4 ;
5 [label="gini = 0.57\nsamples = 25\nvalue = [11, 4, 19]\nclass = 2", fillcolor="#d3baf6"] ;
3 -> 5 ;
6 [label="ATLossStreak3 <= 0.5\ngini = 0.36\nsamples = 107\nvalue = [19, 20, 140]\nclass = 2", fillcolor="#a06aeb"] ;
2 -> 6 ;
7 [label="gini = 0.39\nsamples = 101\nvalue = [19, 20, 126]\nclass = 2", fillcolor="#a36eec"] ;
6 -> 7 ;
8 [label="gini = 0.0\nsamples = 6\nvalue = [0, 0, 14]\nclass = 2", fillcolor="#8139e5"] ;
6 -> 8 ;
9 [label="DiffPts <= 0.28\ngini = 0.55\nsamples = 478\nvalue = [123, 165, 458]\nclass = 2", fillcolor="#bf9bf2"] ;
1 -> 9 ;
10 [label="DiffPts <= 0.26\ngini = 0.61\nsamples = 280\nvalue = [93, 125, 242]\nclass = 2", fillcolor="#d3baf6"] ;
9 -> 10 ;
11 [label="gini = 0.6\nsamples = 275\nvalue = [93, 116, 241]\nclass = 2", fillcolor="#d0b5f5"] ;
10 -> 11 ;
12 [label="gini = 0.18\nsamples = 5\nvalue = [0, 9, 1]\nclass = 1", fillcolor="#4fe88f"] ;
10 -> 12 ;
13 [label="ATLossStreak5 <= 0.5\ngini = 0.4\nsamples = 198\nvalue = [30, 40, 216]\nclass = 2", fillcolor="#a571ec"] ;
9 -> 13 ;
14 [label="gini = 0.39\nsamples = 196\nvalue = [29, 39, 216]\nclass = 2", fillcolor="#a470ec"] ;
13 -> 14 ;
15 [label="gini = 0.5\nsamples = 2\nvalue = [1, 1, 0]\nclass = 0", fillcolor="#ffffff"] ;
13 -> 15 ;
16 [label="ATWinStreak3 <= 0.5\ngini = 0.66\nsamples = 1079\nvalue = [554, 514, 628]\nclass = 2", fillcolor="#f7f2fd"] ;
0 -> 16 [labeldistance=2.5, labelangle=-45, headlabel="False"] ;
17 [label="AM3 <= 1.5\ngini = 0.66\nsamples = 991\nvalue = [491, 472, 589]\nclass = 2", fillcolor="#f3edfd"] ;
16 -> 17 ;
18 [label="HTP <= 1.45\ngini = 0.66\nsamples = 577\nvalue = [272, 267, 381]\nclass = 2", fillcolor="#eadefb"] ;
17 -> 18 ;
19 [label="gini = 0.66\nsamples = 497\nvalue = [253, 232, 313]\nclass = 2", fillcolor="#f1e9fc"] ;
18 -> 19 ;
20 [label="gini = 0.58\nsamples = 80\nvalue = [19, 35, 68]\nclass = 2", fillcolor="#cfb4f5"] ;
18 -> 20 ;
21 [label="DiffPts <= 0.01\ngini = 0.67\nsamples = 414\nvalue = [219, 205, 208]\nclass = 0", fillcolor="#fefcfa"] ;
17 -> 21 ;
22 [label="gini = 0.66\nsamples = 299\nvalue = [191, 144, 124]\nclass = 0", fillcolor="#fbece1"] ;
21 -> 22 ;
23 [label="gini = 0.61\nsamples = 115\nvalue = [28, 61, 84]\nclass = 2", fillcolor="#e5d6fa"] ;
21 -> 23 ;
24 [label="HTGC <= 0.08\ngini = 0.65\nsamples = 88\nvalue = [63, 42, 39]\nclass = 0", fillcolor="#fae5d6"] ;
16 -> 24 ;
25 [label="HTGD <= 0.65\ngini = 0.48\nsamples = 7\nvalue = [0, 6, 4]\nclass = 1", fillcolor="#bdf6d5"] ;
24 -> 25 ;
26 [label="gini = 0.24\nsamples = 5\nvalue = [0, 6, 1]\nclass = 1", fillcolor="#5ae996"] ;
25 -> 26 ;
27 [label="gini = 0.0\nsamples = 2\nvalue = [0, 0, 3]\nclass = 2", fillcolor="#8139e5"] ;
25 -> 27 ;
28 [label="HTWinStreak3 <= 0.5\ngini = 0.64\nsamples = 81\nvalue = [63, 36, 35]\nclass = 0", fillcolor="#f8dcc8"] ;
24 -> 28 ;
29 [label="gini = 0.62\nsamples = 75\nvalue = [63, 29, 30]\nclass = 0", fillcolor="#f6d2b8"] ;
28 -> 29 ;
30 [label="gini = 0.49\nsamples = 6\nvalue = [0, 7, 5]\nclass = 1", fillcolor="#c6f8db"] ;
28 -> 30 ;
}